network unknown {
}
variable Attendance {
  type discrete [ 2 ] { 0, 1 };
}
variable Weekday {
  type discrete [ 7 ] { Friday, Monday, Saturday, Sunday, Thursday, Tuesday, Wednesday };
}
variable Busy {
  type discrete [ 2 ] { 0, 1 };
}
variable DayBeforeBusy {
  type discrete [ 2 ] { 0, 1 };
}
variable DayAfterBusy {
  type discrete [ 2 ] { 0, 1 };
}
variable WeekBeforeBusy {
  type discrete [ 2 ] { 0, 1 };
}
variable PAttendance {
  type discrete [ 12 ] { [0.824_0.8244], _0.8244_0.8249], _0.8249_0.8253], _0.8253_0.8257], [0.7619_0.7623], _0.7623_0.7627], _0.7627_0.7631], _0.7631_0.7635], [0.7845_0.7849], _0.7849_0.7853], _0.7853_0.7857], _0.7857_0.7861] };
}
variable PDailyAttendance {
  type discrete [ 4 ] { [-0.000861_0.215], _0.215_0.431], _0.431_0.646], _0.646_0.862] };
}
variable Temperature {
  type discrete [ 3 ] { [-3.02_5.13], _5.13_13.3], _13.3_21.4] };
}
variable Rain {
  type discrete [ 2 ] { [-0.0514_25.7], _25.7_51.5] };
}
variable Trend {
  type discrete [ 12 ] { [-0.0144_0.171], _0.171_0.355], _0.355_0.539], _0.539_0.725], [-0.0123_0.173], _0.173_0.357], _0.357_0.541], _0.541_0.726], [-0.014_0.172], _0.172_0.357], _0.357_0.542], _0.542_0.728] };
}
probability ( Attendance ) {
  table 0.6163321, 0.3836679;
}
probability ( Weekday | Attendance ) {
  (0) 0.11409538, 0.11557576, 0.23104579, 0.23548694, 0.10373268, 0.09781115, 0.10225230;
  (1) 0.1880414473, 0.1856633260, 0.0001698658, 0.0001698658, 0.2046882962, 0.2142007814, 0.2070664175;
}
probability ( Busy | Attendance, WeekBeforeBusy ) {
  (0, 0) 0.992116579, 0.007883421;
  (1, 0) 0.003030303, 0.996969697;
  (0, 1) 0.2963875, 0.7036125;
  (1, 1) 0.0003295979, 0.9996704021;
}
probability ( DayBeforeBusy | Attendance, Weekday ) {
  (0, Friday) 0.6621872, 0.3378128;
  (1, Friday) 0.0004516712, 0.9995483288;
  (0, Monday) 0.9995425435, 0.0004574565;
  (1, Monday) 0.9995425435, 0.0004574565;
  (0, Saturday) 0.3462243, 0.6537757;
  (1, Saturday) 0.5, 0.5;
  (0, Sunday) 0.9997754827, 0.0002245173;
  (1, Sunday) 0.5, 0.5;
  (0, Thursday) 0.685525, 0.314475;
  (1, Thursday) 0.0004149378, 0.9995850622;
  (0, Tuesday) 0.727027, 0.272973;
  (1, Tuesday) 0.0003965107, 0.9996034893;
  (0, Wednesday) 0.6954498, 0.3045502;
  (1, Wednesday) 0.0004101723, 0.9995898277;
}
probability ( DayAfterBusy | Attendance, Weekday ) {
  (0, Friday) 0.999536608, 0.000463392;
  (1, Friday) 0.9995483288, 0.0004516712;
  (0, Monday) 0.615279, 0.384721;
  (1, Monday) 0.0004574565, 0.9995425435;
  (0, Saturday) 0.999771167, 0.000228833;
  (1, Saturday) 0.5, 0.5;
  (0, Sunday) 0.3208352, 0.6791648;
  (1, Sunday) 0.5, 0.5;
  (0, Thursday) 0.7568807, 0.2431193;
  (1, Thursday) 0.0120332, 0.9879668;
  (0, Tuesday) 0.727027, 0.272973;
  (1, Tuesday) 0.0003965107, 0.9996034893;
  (0, Wednesday) 0.6954498, 0.3045502;
  (1, Wednesday) 0.03486464, 0.96513536;
}
probability ( WeekBeforeBusy | Attendance, Weekday ) {
  (0, Friday) 0.6102873, 0.3897127;
  (1, Friday) 0.08897922, 0.91102078;
  (0, Monday) 0.5, 0.5;
  (1, Monday) 0.1157365, 0.8842635;
  (0, Saturday) 0.999771167, 0.000228833;
  (1, Saturday) 0.5, 0.5;
  (0, Sunday) 0.9997754827, 0.0002245173;
  (1, Sunday) 0.5, 0.5;
  (0, Thursday) 0.6141692, 0.3858308;
  (1, Thursday) 0.093361, 0.906639;
  (0, Tuesday) 0.5908108, 0.4091892;
  (1, Tuesday) 0.1003172, 0.8996828;
  (0, Wednesday) 0.5796277, 0.4203723;
  (1, Wednesday) 0.09228876, 0.90771124;
}
probability ( PAttendance | Attendance, Trend ) {
  (0, [-0.0144_0.171]) 3.274394e-05, 9.996398e-01, 3.274394e-05, 3.274394e-05, 3.274394e-05, 3.274394e-05, 3.274394e-05, 3.274394e-05, 3.274394e-05, 3.274394e-05, 3.274394e-05, 3.274394e-05;
  (1, [-0.0144_0.171]) 0.08333333, 0.08333333, 0.08333333, 0.08333333, 0.08333333, 0.08333333, 0.08333333, 0.08333333, 0.08333333, 0.08333333, 0.08333333, 0.08333333;
  (0, _0.171_0.355]) 0.0002308403, 0.9974607572, 0.0002308403, 0.0002308403, 0.0002308403, 0.0002308403, 0.0002308403, 0.0002308403, 0.0002308403, 0.0002308403, 0.0002308403, 0.0002308403;
  (1, _0.171_0.355]) 0.0008591065, 0.9905498282, 0.0008591065, 0.0008591065, 0.0008591065, 0.0008591065, 0.0008591065, 0.0008591065, 0.0008591065, 0.0008591065, 0.0008591065, 0.0008591065;
  (0, _0.355_0.539]) 7.708912e-05, 9.991520e-01, 7.708912e-05, 7.708912e-05, 7.708912e-05, 7.708912e-05, 7.708912e-05, 7.708912e-05, 7.708912e-05, 7.708912e-05, 7.708912e-05, 7.708912e-05;
  (1, _0.355_0.539]) 9.633911e-05, 9.989403e-01, 9.633911e-05, 9.633911e-05, 9.633911e-05, 9.633911e-05, 9.633911e-05, 9.633911e-05, 9.633911e-05, 9.633911e-05, 9.633911e-05, 9.633911e-05;
  (0, _0.539_0.725]) 6.546216e-05, 9.992799e-01, 6.546216e-05, 6.546216e-05, 6.546216e-05, 6.546216e-05, 6.546216e-05, 6.546216e-05, 6.546216e-05, 6.546216e-05, 6.546216e-05, 6.546216e-05;
  (1, _0.539_0.725]) 3.274394e-05, 9.996398e-01, 3.274394e-05, 3.274394e-05, 3.274394e-05, 3.274394e-05, 3.274394e-05, 3.274394e-05, 3.274394e-05, 3.274394e-05, 3.274394e-05, 3.274394e-05;
  (0, [-0.0123_0.173]) 2.776852e-05, 2.776852e-05, 2.776852e-05, 2.776852e-05, 2.776852e-05, 9.996945e-01, 2.776852e-05, 2.776852e-05, 2.776852e-05, 2.776852e-05, 2.776852e-05, 2.776852e-05;
  (1, [-0.0123_0.173]) 0.08333333, 0.08333333, 0.08333333, 0.08333333, 0.08333333, 0.08333333, 0.08333333, 0.08333333, 0.08333333, 0.08333333, 0.08333333, 0.08333333;
  (0, _0.173_0.357]) 0.0001444252, 0.0001444252, 0.0001444252, 0.0001444252, 0.0001444252, 0.9984113229, 0.0001444252, 0.0001444252, 0.0001444252, 0.0001444252, 0.0001444252, 0.0001444252;
  (1, _0.173_0.357]) 0.00170068, 0.00170068, 0.00170068, 0.00170068, 0.00170068, 0.98129252, 0.00170068, 0.00170068, 0.00170068, 0.00170068, 0.00170068, 0.00170068;
  (0, _0.357_0.541]) 0.0001019992, 0.0001019992, 0.0001019992, 0.0001019992, 0.0001019992, 0.9988780090, 0.0001019992, 0.0001019992, 0.0001019992, 0.0001019992, 0.0001019992, 0.0001019992;
  (1, _0.357_0.541]) 9.633911e-05, 9.633911e-05, 9.633911e-05, 9.633911e-05, 9.633911e-05, 9.989403e-01, 9.633911e-05, 9.633911e-05, 9.633911e-05, 9.633911e-05, 9.633911e-05, 9.633911e-05;
  (0, _0.541_0.726]) 7.381163e-05, 7.381163e-05, 7.381163e-05, 7.381163e-05, 7.381163e-05, 9.991881e-01, 7.381163e-05, 7.381163e-05, 7.381163e-05, 7.381163e-05, 7.381163e-05, 7.381163e-05;
  (1, _0.541_0.726]) 3.578074e-05, 3.578074e-05, 3.578074e-05, 3.578074e-05, 3.578074e-05, 9.996064e-01, 3.578074e-05, 3.578074e-05, 3.578074e-05, 3.578074e-05, 3.578074e-05, 3.578074e-05;
  (0, [-0.014_0.172]) 2.799239e-05, 2.799239e-05, 2.799239e-05, 2.799239e-05, 2.799239e-05, 2.799239e-05, 2.799239e-05, 2.799239e-05, 2.799239e-05, 9.996921e-01, 2.799239e-05, 2.799239e-05;
  (1, [-0.014_0.172]) 0.08333333, 0.08333333, 0.08333333, 0.08333333, 0.08333333, 0.08333333, 0.08333333, 0.08333333, 0.08333333, 0.08333333, 0.08333333, 0.08333333;
  (0, _0.172_0.357]) 0.0002308403, 0.0002308403, 0.0002308403, 0.0002308403, 0.0002308403, 0.0002308403, 0.0002308403, 0.0002308403, 0.0002308403, 0.9974607572, 0.0002308403, 0.0002308403;
  (1, _0.172_0.357]) 0.003333333, 0.003333333, 0.003333333, 0.003333333, 0.003333333, 0.003333333, 0.003333333, 0.003333333, 0.003333333, 0.963333333, 0.003333333, 0.003333333;
  (0, _0.357_0.542]) 9.908839e-05, 9.908839e-05, 9.908839e-05, 9.908839e-05, 9.908839e-05, 9.908839e-05, 9.908839e-05, 9.908839e-05, 9.908839e-05, 9.989100e-01, 9.908839e-05, 9.908839e-05;
  (1, _0.357_0.542]) 0.0001050862, 0.0001050862, 0.0001050862, 0.0001050862, 0.0001050862, 0.0001050862, 0.0001050862, 0.0001050862, 0.0001050862, 0.9988440521, 0.0001050862, 0.0001050862;
  (0, _0.542_0.728]) 6.672004e-05, 6.672004e-05, 6.672004e-05, 6.672004e-05, 6.672004e-05, 6.672004e-05, 6.672004e-05, 6.672004e-05, 6.672004e-05, 9.992661e-01, 6.672004e-05, 6.672004e-05;
  (1, _0.542_0.728]) 3.305567e-05, 3.305567e-05, 3.305567e-05, 3.305567e-05, 3.305567e-05, 3.305567e-05, 3.305567e-05, 3.305567e-05, 3.305567e-05, 9.996364e-01, 3.305567e-05, 3.305567e-05;
}
probability ( PDailyAttendance | Attendance, Weekday ) {
  (0, Friday) 0.000231696, 0.000231696, 0.000231696, 0.999304912;
  (1, Friday) 0.0002258356, 0.0002258356, 0.0002258356, 0.9993224932;
  (0, Monday) 0.0002287283, 0.0002287283, 0.0002287283, 0.9993138152;
  (1, Monday) 0.0002287283, 0.0002287283, 0.0002287283, 0.9993138152;
  (0, Saturday) 0.9996567506, 0.0001144165, 0.0001144165, 0.0001144165;
  (1, Saturday) 0.25, 0.25, 0.25, 0.25;
  (0, Sunday) 0.9996632241, 0.0001122586, 0.0001122586, 0.0001122586;
  (1, Sunday) 0.25, 0.25, 0.25, 0.25;
  (0, Thursday) 0.000254842, 0.000254842, 0.000254842, 0.999235474;
  (1, Thursday) 0.0002074689, 0.0002074689, 0.0002074689, 0.9993775934;
  (0, Tuesday) 0.0002702703, 0.0002702703, 0.0002702703, 0.9991891892;
  (1, Tuesday) 0.0001982554, 0.0001982554, 0.0001982554, 0.9994052339;
  (0, Wednesday) 0.0002585315, 0.0002585315, 0.0002585315, 0.9992244054;
  (1, Wednesday) 0.0002050861, 0.0002050861, 0.0002050861, 0.9993847416;
}
probability ( Temperature | Attendance, Trend ) {
  (0, [-0.0144_0.171]) 0.1132940, 0.4339227, 0.4527832;
  (1, [-0.0144_0.171]) 0.3333333, 0.3333333, 0.3333333;
  (0, _0.171_0.355]) 0.06740536, 0.86518929, 0.06740536;
  (1, _0.171_0.355]) 0.745704467, 0.250859107, 0.003436426;
  (0, _0.355_0.539]) 0.37773666, 0.57755165, 0.04471169;
  (1, _0.355_0.539]) 0.41657033, 0.52755299, 0.05587669;
  (0, _0.539_0.725]) 0.22649908, 0.75438596, 0.01911495;
  (1, _0.539_0.725]) 0.226457105, 0.763981663, 0.009561231;
  (0, [-0.0123_0.173]) 0.08808175, 0.52793513, 0.38398312;
  (1, [-0.0123_0.173]) 0.3333333, 0.3333333, 0.3333333;
  (0, _0.173_0.357]) 0.45811670, 0.49971115, 0.04217215;
  (1, _0.173_0.357]) 0.496598639, 0.496598639, 0.006802721;
  (0, _0.357_0.541]) 0.20603835, 0.76417789, 0.02978376;
  (1, _0.357_0.541]) 0.27784200, 0.69402697, 0.02813102;
  (0, _0.541_0.726]) 0.276646, 0.701801, 0.021553;
  (1, _0.541_0.726]) 0.31959353, 0.64934879, 0.03105768;
  (0, [-0.014_0.172]) 0.08879185, 0.52412944, 0.38707871;
  (1, [-0.014_0.172]) 0.3333333, 0.3333333, 0.3333333;
  (0, _0.172_0.357]) 0.20036934, 0.73222530, 0.06740536;
  (1, _0.172_0.357]) 0.01333333, 0.97333333, 0.01333333;
  (0, _0.357_0.542]) 0.20015854, 0.77090765, 0.02893381;
  (1, _0.357_0.542]) 0.30306852, 0.66624632, 0.03068516;
  (0, _0.542_0.728]) 0.34614358, 0.63437417, 0.01948225;
  (1, _0.542_0.728]) 0.33333333, 0.63797435, 0.02869232;
}
probability ( Rain | Attendance, Weekday ) {
  (0, Friday) 0.999536608, 0.000463392;
  (1, Friday) 0.96160795, 0.03839205;
  (0, Monday) 0.9995425435, 0.0004574565;
  (1, Monday) 0.9995425435, 0.0004574565;
  (0, Saturday) 0.999771167, 0.000228833;
  (1, Saturday) 0.5, 0.5;
  (0, Sunday) 0.9997754827, 0.0002245173;
  (1, Sunday) 0.5, 0.5;
  (0, Thursday) 0.999490316, 0.000509684;
  (1, Thursday) 0.9995850622, 0.0004149378;
  (0, Tuesday) 0.9994594595, 0.0005405405;
  (1, Tuesday) 0.9996034893, 0.0003965107;
  (0, Wednesday) 0.9994829369, 0.0005170631;
  (1, Wednesday) 0.96513536, 0.03486464;
}
probability ( Trend | Attendance, DayAfterBusy ) {
  (0, 0) 0.22030303, 0.02497835, 0.03536797, 0.04991342, 0.23484848, 0.02705628, 0.02705628, 0.04367965, 0.23277056, 0.02290043, 0.03329004, 0.04783550;
  (1, 0) 0.0002502503, 0.0122622623, 0.1083583584, 0.2284784785, 0.0002502503, 0.0122622623, 0.0843343343, 0.2404904905, 0.0002502503, 0.0002502503, 0.0723223223, 0.2404904905;
  (0, 1) 0.0001072501, 0.0155512656, 0.1442513943, 0.1493993994, 0.0618833119, 0.0567353067, 0.1082153582, 0.1339553840, 0.0618833119, 0.0206992707, 0.0979193479, 0.1493993994;
  (1, 1) 6.177415e-05, 8.957252e-03, 8.012108e-02, 2.580306e-01, 6.177415e-05, 3.026934e-03, 8.605140e-02, 2.283790e-01, 6.177415e-05, 3.026934e-03, 8.012108e-02, 2.521003e-01;
}
